6015668 100
1 0.004003 0.004419 -0.003830 -0.003278 0.001367 0.003021 0.000941 0.000211 -0.003604 0.002218 -0.004356 0.001250 -0.000751 -0.000957 -0.003316 -0.001882 0.002579 0.003025 0.002969 0.001597 0.001545 -0.003803 -0.004096 0.004970 0.003801 0.003090 -0.000604 0.004016 -0.000495 0.000735 -0.000149 -0.002983 0.001312 -0.001337 -0.003825 0.004754 0.004379 -0.001095 -0.000226 0.000509 -0.003638 -0.004007 0.004555 0.000063 -0.002582 -0.003042 -0.003076 0.001697 0.000201 0.001331 -0.004214 -0.003808 -0.000130 0.001144 0.002550 -0.003170 0.004080 0.000927 0.001120 -0.000608 0.002986 -0.002288 -0.002097 0.002158 -0.000753 0.001031 0.001805 -0.004089 -0.001983 0.002914 0.004232 0.003932 -0.003047 -0.002108 -0.000909 0.002001 -0.003788 0.002998 0.002788 -0.001599 -0.001552 -0.002238 0.004229 0.003912 -0.001180 0.004215 0.004820 0.001815 0.004983 -0.003111 -0.001532 -0.002107 -0.002907 0.002815 0.001579 0.000425 -0.002194 0.001524 0.003059 0.000194
2 0.010669 0.014826 0.151328 -0.100904 -0.183471 0.008570 -0.114590 -0.008781 -0.186657 -0.136406 0.176740 0.192632 0.031643 -0.143702 -0.025761 0.270409 0.184231 0.164810 0.123078 0.318323 -0.055363 0.203425 0.128750 -0.366845 -0.011513 -0.137702 0.058872 -0.005634 0.127483 -0.141302 0.021427 0.296995 -0.237995 0.013325 -0.191018 0.252873 0.208632 -0.011365 0.237137 -0.291076 -0.119488 0.200417 -0.219499 -0.217654 -0.088694 0.009790 -0.080308 0.056676 -0.212421 0.058787 -0.014571 -0.075314 -0.045252 -0.121422 0.008599 -0.197703 0.037888 -0.101033 0.101115 -0.391568 0.169682 0.243958 0.080920 -0.001642 0.231916 0.018716 0.019917 0.007739 0.049027 0.014589 0.168623 0.374374 0.038627 -0.368913 -0.397381 0.104741 -0.245526 0.106062 0.048363 -0.230762 0.146762 0.229653 -0.178562 -0.240761 0.056583 0.474239 0.121554 0.184487 0.367939 0.200976 -0.038924 0.011864 0.016134 0.086221 0.049882 0.062650 -0.098021 0.017602 -0.027990 0.145413
3 -0.257439 -0.029239 0.221333 -0.139114 0.077412 -0.058639 0.057595 0.113365 0.085300 0.202746 0.447296 0.609991 -0.001264 0.173004 -0.012464 0.218035 0.282786 0.499637 -0.031581 0.537884 -0.341191 0.250569 0.228740 -0.135590 0.116078 -0.171089 0.060001 -0.030464 0.062311 -0.278185 -0.280235 0.266356 -0.129187 0.302561 -0.017154 0.219076 -0.097835 0.081198 0.122597 -0.440000 -0.310085 0.367354 -0.458831 -0.237578 0.039063 -0.098864 -0.087990 0.030326 -0.176597 0.279930 0.099412 -0.088521 0.023839 0.252128 -0.124253 -0.121544 0.375811 -0.008050 -0.136886 0.045747 -0.220620 -0.173363 0.123115 0.009647 -0.017801 0.001426 0.251720 -0.001235 0.037773 -0.021049 0.342144 0.357371 0.027989 -0.070186 -0.271059 -0.106305 0.001109 0.074327 0.113393 -0.063322 0.298328 0.013730 -0.054926 -0.056027 0.386777 0.136310 0.525680 -0.046182 0.572501 0.174351 -0.131312 0.061333 0.188063 0.123933 0.214639 0.128869 0.132876 0.280559 -0.081795 -0.042705
4 -0.269785 -0.039677 0.207393 -0.046999 -0.161116 0.186155 0.096054 0.071901 -0.161029 0.173453 0.092815 0.285028 0.077192 -0.309401 -0.111198 0.292699 0.113354 0.278342 0.043939 0.170205 -0.098186 0.211417 0.155412 -0.101028 -0.003024 -0.276099 -0.156722 0.032209 0.007253 -0.117509 -0.134974 0.114788 -0.030727 0.048297 -0.154988 0.262300 -0.042128 0.260397 0.106587 -0.227205 -0.069716 0.272579 -0.139206 -0.246770 0.138470 0.132721 -0.073691 -0.046411 -0.144972 0.169934 0.043438 -0.255576 -0.019687 0.113724 -0.204252 -0.194807 -0.002643 0.112115 -0.080976 -0.241762 0.019145 -0.022739 0.292924 -0.053026 0.008807 0.069105 0.065377 0.009240 0.079437 -0.042819 0.230531 0.074313 -0.016288 -0.289498 -0.359996 0.056393 -0.182934 0.033551 0.052410 -0.179641 0.185160 0.181829 -0.150304 -0.089799 0.060103 0.313499 0.140059 0.123927 0.424041 0.121631 -0.114836 0.263308 -0.158308 0.051653 0.125174 0.200013 -0.161044 0.195587 -0.055025 0.026079
5 0.231286 -0.298845 0.168265 0.020323 0.007020 0.367139 0.088646 -0.064459 0.160574 0.207627 0.565777 0.078319 0.183286 -0.355042 -0.055057 0.069409 0.327700 0.259540 0.320264 -0.170469 -0.037007 0.456659 0.117633 -0.127842 -0.085895 -0.260710 0.223212 0.061427 0.144601 -0.021315 -0.314368 -0.148337 -0.120939 0.101859 0.141652 0.025444 0.137485 0.359383 0.011938 -0.306142 0.014409 -0.032975 -0.013303 -0.145249 0.152477 -0.146306 -0.060795 0.151806 0.106538 -0.051821 -0.257921 -0.218909 0.018092 -0.100872 0.111998 -0.042492 -0.130658 0.025224 -0.171985 -0.039158 0.234010 -0.096179 0.267361 0.189870 0.091665 0.085126 0.223885 -0.295399 0.084273 0.032515 -0.117813 0.090424 0.104917 -0.055108 -0.326227 -0.149633 -0.357757 0.037905 -0.277582 -0.231117 -0.191491 -0.172448 -0.255620 -0.063626 -0.062456 0.393958 0.140038 0.060370 0.419093 0.133712 0.074432 -0.087230 -0.108639 0.005827 0.052213 0.080018 -0.106526 0.000273 -0.168182 0.067663
6 0.350439 -0.057323 0.238088 0.115970 -0.235451 0.174784 0.055787 0.208746 -0.024066 0.218019 0.347390 0.282524 0.119857 -0.209640 -0.055825 0.171880 0.372013 0.248018 0.314971 -0.080579 -0.038702 0.246269 0.021767 -0.402817 0.039582 -0.006282 -0.000159 0.006369 -0.023570 0.011399 -0.312988 -0.306715 -0.152511 0.178106 0.118640 0.357058 0.121165 0.193344 -0.154794 0.004512 -0.023746 0.022006 0.009326 -0.249706 0.324524 0.049351 -0.275794 0.077908 -0.207406 -0.097123 -0.419783 -0.368646 0.135334 -0.017118 0.272845 0.017892 -0.222540 0.044949 0.050279 -0.213593 0.213744 -0.043321 0.276597 -0.023188 -0.299272 -0.024739 0.040792 -0.348239 0.192662 0.096314 0.085490 0.086403 0.104902 0.065719 -0.098305 0.003400 -0.390099 0.031940 0.036151 -0.147742 -0.158867 -0.247637 -0.164321 0.051224 0.149374 0.328986 0.075187 0.046686 0.332275 0.140203 0.148979 -0.105809 0.076836 -0.107114 -0.124960 0.249043 -0.012030 -0.112263 -0.370919 -0.313215 
